/* Array of quadrature weights. */
static const double W24[24] = {0.00665379170969465, 0.00665379170969465, 0.00665379170969465, 0.00665379170969465, 0.00167953517588678, 0.00167953517588678, 0.00167953517588678, 0.00167953517588678, 0.0092261969239424, 0.0092261969239424, 0.0092261969239424, 0.0092261969239424, 0.00803571428571428, 0.00803571428571428, 0.00803571428571428, 0.00803571428571428, 0.00803571428571428, 0.00803571428571428, 0.00803571428571428, 0.00803571428571428, 0.00803571428571428, 0.00803571428571428, 0.00803571428571428, 0.00803571428571428};

/* Value of basis functions at quadrature points. */
static const double FE0[24][20] = \
{{0.0518334274205328, -0.0113752824165089, 0.0518334274205327, 0.0518334274205327, -0.0738188003418085, -0.0738188003418085, 0.0235880447339437, -0.122522222879685, 0.0235880447339437, -0.122522222879685, -0.0738188003418085, -0.0738188003418085, -0.0738188003418085, -0.0738188003418085, -0.122522222879685, 0.0235880447339437, 0.442912802050851, 0.266851930490431, 0.442912802050851, 0.442912802050851},
{-0.0113752824165089, 0.0518334274205327, 0.0518334274205328, 0.0518334274205327, -0.0738188003418085, -0.0738188003418085, -0.0738188003418084, -0.0738188003418085, -0.0738188003418085, -0.0738188003418085, 0.0235880447339437, -0.122522222879685, 0.0235880447339437, -0.122522222879685, 0.0235880447339436, -0.122522222879685, 0.266851930490431, 0.442912802050851, 0.442912802050851, 0.442912802050851},
{0.0518334274205328, 0.0518334274205327, 0.0518334274205327, -0.0113752824165089, -0.122522222879685, 0.0235880447339437, -0.122522222879684, 0.0235880447339437, -0.0738188003418085, -0.0738188003418085, -0.122522222879685, 0.0235880447339437, -0.0738188003418085, -0.0738188003418085, -0.0738188003418087, -0.0738188003418085, 0.442912802050851, 0.442912802050851, 0.442912802050851, 0.266851930490431},
{0.0518334274205327, 0.0518334274205327, -0.0113752824165089, 0.0518334274205327, 0.0235880447339436, -0.122522222879685, -0.0738188003418084, -0.0738188003418085, -0.122522222879685, 0.0235880447339437, -0.0738188003418085, -0.0738188003418085, -0.122522222879685, 0.0235880447339437, -0.0738188003418086, -0.0738188003418085, 0.442912802050851, 0.442912802050851, 0.266851930490431, 0.442912802050851},
{0.0335320936324426, 0.454708014971024, 0.0335320936324424, 0.0335320936324424, -0.00653625658062917, -0.00653625658062911, 0.262571303208207, -0.141090036475047, 0.262571303208207, -0.141090036475047, -0.00653625658062917, -0.00653625658062911, -0.00653625658062915, -0.00653625658062901, -0.141090036475048, 0.262571303208208, 0.039217539483775, 0.0018168249646191, 0.0392175394837749, 0.0392175394837749},
{0.454708014971024, 0.0335320936324424, 0.0335320936324424, 0.0335320936324424, -0.00653625658062917, -0.0065362565806291, -0.00653625658062917, -0.00653625658062902, -0.00653625658062922, -0.00653625658062895, 0.262571303208207, -0.141090036475047, 0.262571303208207, -0.141090036475047, 0.262571303208207, -0.141090036475047, 0.00181682496461908, 0.0392175394837748, 0.0392175394837748, 0.0392175394837747},
{0.0335320936324425, 0.0335320936324424, 0.0335320936324425, 0.454708014971024, -0.141090036475047, 0.262571303208207, -0.141090036475047, 0.262571303208207, -0.00653625658062911, -0.00653625658062916, -0.141090036475048, 0.262571303208207, -0.00653625658062919, -0.00653625658062921, -0.00653625658062928, -0.00653625658062916, 0.0392175394837749, 0.0392175394837749, 0.039217539483775, 0.00181682496461914},
{0.0335320936324426, 0.0335320936324425, 0.454708014971024, 0.0335320936324424, 0.262571303208207, -0.141090036475047, -0.00653625658062913, -0.00653625658062913, -0.141090036475047, 0.262571303208207, -0.0065362565806293, -0.00653625658062912, -0.141090036475048, 0.262571303208208, -0.00653625658062926, -0.00653625658062909, 0.039217539483775, 0.0392175394837752, 0.00181682496461905, 0.0392175394837751},
{0.00549173953599321, 0.0282514044564419, 0.00549173953599315, 0.00549173953599307, -0.0154230130264835, -0.0154230130264836, -0.0431124223349633, -0.00157830837224374, -0.0431124223349635, -0.00157830837224376, -0.0154230130264838, -0.0154230130264835, -0.0154230130264839, -0.0154230130264835, -0.0015783083722438, -0.0431124223349634, 0.0925380781589019, 0.904269412739397, 0.092538078158902, 0.0925380781589017},
{0.0282514044564418, 0.00549173953599311, 0.00549173953599312, 0.0054917395359931, -0.0154230130264836, -0.0154230130264835, -0.0154230130264834, -0.0154230130264835, -0.0154230130264834, -0.0154230130264836, -0.0431124223349633, -0.00157830837224363, -0.0431124223349633, -0.0015783083722437, -0.0431124223349634, -0.00157830837224358, 0.904269412739397, 0.0925380781589013, 0.0925380781589012, 0.0925380781589012},
{0.00549173953599327, 0.00549173953599312, 0.00549173953599313, 0.0282514044564419, -0.00157830837224376, -0.0431124223349635, -0.0015783083722437, -0.0431124223349635, -0.0154230130264835, -0.0154230130264836, -0.00157830837224379, -0.0431124223349634, -0.0154230130264839, -0.0154230130264836, -0.0154230130264839, -0.0154230130264835, 0.092538078158902, 0.0925380781589019, 0.0925380781589019, 0.904269412739397},
{0.00549173953599328, 0.00549173953599311, 0.0282514044564419, 0.00549173953599309, -0.0431124223349635, -0.00157830837224376, -0.0154230130264835, -0.0154230130264835, -0.00157830837224377, -0.0431124223349635, -0.0154230130264839, -0.0154230130264835, -0.00157830837224381, -0.0431124223349634, -0.0154230130264841, -0.0154230130264836, 0.0925380781589019, 0.0925380781589018, 0.904269412739397, 0.0925380781589018},
{-0.0465847495312456, 0.0306694990624912, 0.0465847495312456, 0.0465847495312456, -0.0147542485937368, -0.0147542485937369, -0.0147542485937368, -0.0625, -0.0147542485937368, -0.0625, 0.139754248593737, -0.139754248593737, 0.139754248593737, -0.139754248593737, 0.592008497187474, -0.139754248593737, 0.0295084971874737, 0.0659830056250526, 0.279508497187474, 0.279508497187474},
{-0.0465847495312457, 0.0465847495312456, 0.0306694990624912, 0.0465847495312456, -0.0147542485937368, -0.0625, -0.0147542485937368, -0.0147542485937369, -0.0625000000000001, -0.0147542485937368, 0.139754248593737, -0.139754248593737, 0.592008497187474, -0.139754248593737, 0.139754248593737, -0.139754248593737, 0.0295084971874737, 0.279508497187474, 0.0659830056250526, 0.279508497187474},
{-0.0465847495312457, 0.0465847495312456, 0.0465847495312456, 0.0306694990624912, -0.0625, -0.0147542485937368, -0.0624999999999999, -0.0147542485937368, -0.0147542485937369, -0.0147542485937368, 0.592008497187474, -0.139754248593737, 0.139754248593737, -0.139754248593737, 0.139754248593737, -0.139754248593737, 0.0295084971874735, 0.279508497187474, 0.279508497187474, 0.0659830056250526},
{0.0306694990624912, -0.0465847495312457, 0.0465847495312456, 0.0465847495312456, -0.0147542485937368, -0.0147542485937369, 0.139754248593737, -0.139754248593737, 0.139754248593737, -0.139754248593737, -0.0147542485937368, -0.0625, -0.0147542485937368, -0.0625, -0.139754248593737, 0.592008497187474, 0.0659830056250526, 0.0295084971874737, 0.279508497187474, 0.279508497187474},
{0.0306694990624912, 0.0465847495312456, -0.0465847495312456, 0.0465847495312456, 0.139754248593737, -0.139754248593737, -0.0147542485937367, -0.0147542485937369, -0.139754248593737, 0.139754248593737, -0.0147542485937368, -0.0625000000000001, -0.139754248593737, 0.592008497187474, -0.0147542485937369, -0.0625, 0.0659830056250526, 0.279508497187474, 0.0295084971874737, 0.279508497187474},
{0.0306694990624912, 0.0465847495312456, 0.0465847495312456, -0.0465847495312456, -0.139754248593737, 0.139754248593737, -0.139754248593737, 0.139754248593737, -0.0147542485937368, -0.0147542485937369, -0.139754248593737, 0.592008497187474, -0.0147542485937368, -0.0625, -0.014754248593737, -0.0625, 0.0659830056250525, 0.279508497187474, 0.279508497187474, 0.0295084971874736},
{0.0465847495312456, 0.0465847495312456, 0.0306694990624912, -0.0465847495312456, -0.139754248593737, 0.592008497187474, -0.139754248593737, 0.139754248593737, -0.0625, -0.0147542485937368, -0.139754248593737, 0.139754248593737, -0.0625000000000001, -0.0147542485937369, -0.014754248593737, -0.0147542485937368, 0.279508497187474, 0.279508497187474, 0.0659830056250527, 0.0295084971874736},
{0.0465847495312457, 0.0306694990624912, -0.0465847495312456, 0.0465847495312456, 0.139754248593737, -0.139754248593737, -0.0147542485937367, -0.0625, -0.139754248593737, 0.592008497187474, -0.0147542485937369, -0.0147542485937369, -0.139754248593737, 0.139754248593737, -0.0625000000000002, -0.0147542485937368, 0.279508497187474, 0.0659830056250527, 0.0295084971874737, 0.279508497187474},
{0.0465847495312457, -0.0465847495312457, 0.0465847495312456, 0.0306694990624912, -0.0624999999999999, -0.0147542485937369, 0.592008497187473, -0.139754248593737, 0.139754248593737, -0.139754248593737, -0.0625000000000001, -0.0147542485937368, -0.0147542485937369, -0.0147542485937368, -0.139754248593737, 0.139754248593737, 0.279508497187474, 0.0295084971874737, 0.279508497187474, 0.0659830056250526},
{0.0465847495312457, 0.0465847495312456, -0.0465847495312456, 0.0306694990624912, 0.592008497187473, -0.139754248593737, -0.0624999999999998, -0.0147542485937369, -0.139754248593737, 0.139754248593737, -0.0625000000000001, -0.0147542485937368, -0.139754248593737, 0.139754248593737, -0.0147542485937369, -0.0147542485937368, 0.279508497187474, 0.279508497187474, 0.0295084971874737, 0.0659830056250525},
{0.0465847495312457, 0.0306694990624912, 0.0465847495312456, -0.0465847495312456, -0.139754248593737, 0.139754248593737, -0.139754248593737, 0.592008497187474, -0.0147542485937368, -0.0625, -0.139754248593737, 0.139754248593737, -0.0147542485937369, -0.0147542485937369, -0.0625000000000002, -0.0147542485937368, 0.279508497187474, 0.0659830056250526, 0.279508497187474, 0.0295084971874736},
{0.0465847495312457, -0.0465847495312457, 0.0306694990624912, 0.0465847495312456, -0.0147542485937368, -0.0625, 0.139754248593737, -0.139754248593737, 0.592008497187473, -0.139754248593737, -0.0147542485937369, -0.0147542485937369, -0.0625000000000001, -0.0147542485937369, -0.139754248593737, 0.139754248593737, 0.279508497187474, 0.0295084971874738, 0.0659830056250526, 0.279508497187474}};

static const double FE0_D001[24][20] = \
{{0.309691544571293, 0.0, 0.0, -0.309691544571293, -0.34397862390511, 0.277755672855962, 0.109914860856913, 0.461010505429209, 0.0, 0.0, -0.621734296761073, 0.621734296761073, -0.277755672855963, 0.34397862390511, -0.461010505429209, -0.109914860856913, 2.06387174343066, 0.0, 0.0, -2.06387174343066},
{0.492946377144539, 0.0, 0.0, -0.309691544571293, -0.34397862390511, 0.277755672855962, -0.34397862390511, 0.277755672855962, 0.0, 0.0, -0.988243961907566, 0.804989129334319, -1.09815882276448, 0.34397862390511, -1.09815882276448, 0.343978623905111, 1.24346859352214, 0.820403149908517, 0.820403149908516, -1.24346859352215},
{0.309691544571293, 0.0, 0.0, -0.492946377144539, -0.34397862390511, 1.09815882276448, -0.34397862390511, 1.09815882276448, 0.0, 0.0, -0.804989129334319, 0.988243961907566, -0.277755672855963, 0.34397862390511, -0.277755672855963, 0.34397862390511, 1.24346859352214, -0.820403149908515, -0.820403149908515, -1.24346859352214},
{0.309691544571293, 0.0, 0.0, -0.309691544571293, 0.109914860856913, 0.461010505429209, -0.34397862390511, 0.277755672855963, 0.0, 0.0, -0.621734296761073, 0.621734296761073, -0.461010505429209, -0.109914860856913, -0.277755672855963, 0.34397862390511, 2.06387174343066, 0.0, 0.0, -2.06387174343066},
{-0.656268380377316, 0.0, 0.0, 0.656268380377315, -0.160698806216935, -0.138364799028118, 6.45551386361308, -2.98670872248114, 0.0, 0.0, -0.0223340071888146, 0.0223340071888154, 0.138364799028122, 0.160698806216933, 2.98670872248114, -6.45551386361308, 0.964192837301605, 0.0, 0.0, -0.964192837301604},
{-3.50461230383034, 0.0, 0.0, 0.656268380377314, -0.160698806216932, -0.13836479902812, -0.160698806216935, -0.138364799028119, 0.0, 0.0, 5.67435383971723, -2.82600991626421, -0.781160023895858, 0.160698806216933, -0.781160023895855, 0.160698806216933, 0.044668014377631, 0.919524822923978, 0.919524822923977, -0.0446680143776307},
{-0.656268380377312, 0.0, 0.0, 3.50461230383033, -0.160698806216938, 0.781160023895863, -0.160698806216935, 0.781160023895862, 0.0, 0.0, 2.8260099162642, -5.67435383971722, 0.138364799028117, 0.160698806216939, 0.138364799028119, 0.160698806216936, 0.0446680143776248, -0.919524822923977, -0.919524822923982, -0.0446680143776294},
{-0.656268380377312, 0.0, 0.0, 0.656268380377315, 6.45551386361308, -2.98670872248114, -0.160698806216932, -0.13836479902812, 0.0, 0.0, -0.0223340071888197, 0.0223340071888147, 2.98670872248113, -6.45551386361308, 0.13836479902812, 0.160698806216934, 0.964192837301613, 1.35447209004269e-14, 0.0, -0.964192837301615},
{0.498367853091935, 0.0, 0.0, -0.498367853091935, -0.0478473474516944, 1.35482581073685, -0.133749160906694, 0.138645601630889, 0.0, 0.0, -1.40267315818855, 1.40267315818855, -1.35482581073685, 0.047847347451694, -0.138645601630889, 0.133749160906694, 0.287084084710169, 0.0, 0.0, -0.287084084710169},
{-0.717812356014029, 0.0, 0.0, -0.498367853091934, -0.0478473474516948, 1.35482581073685, -0.0478473474516938, 1.35482581073685, 0.0, 0.0, 1.02968726002338, 0.186492949082582, 1.16343642093007, 0.0478473474516943, 1.16343642093007, 0.0478473474516938, 2.80534631637709, -2.51826223166693, -2.51826223166693, -2.80534631637709},
{0.498367853091935, 0.0, 0.0, 0.717812356014026, -0.0478473474516932, -1.16343642093007, -0.0478473474516936, -1.16343642093007, 0.0, 0.0, -0.186492949082584, -1.02968726002338, -1.35482581073685, 0.0478473474516932, -1.35482581073685, 0.0478473474516946, 2.80534631637709, 2.51826223166692, 2.51826223166692, -2.80534631637709},
{0.498367853091935, 0.0, 0.0, -0.498367853091935, -0.133749160906694, 0.13864560163089, -0.0478473474516955, 1.35482581073685, 0.0, 0.0, -1.40267315818855, 1.40267315818855, -0.138645601630889, 0.133749160906693, -1.35482581073685, 0.0478473474516951, 0.287084084710169, 0.0, 0.0, -0.287084084710168},
{-0.481762745781211, 0.0, 0.0, 0.481762745781211, -0.231762745781209, -0.177050983124843, -0.231762745781209, -0.750000000000001, 0.0, 0.0, 1.44528823734363, -1.44528823734363, -0.75, 0.23176274578121, -3.17705098312484, 0.23176274578121, 0.463525491562421, 0.927050983124843, 3.92705098312484, -0.463525491562421},
{-0.48176274578121, 0.0, 0.0, 0.481762745781211, -0.231762745781209, -0.750000000000001, -0.23176274578121, -0.177050983124842, 0.0, 0.0, 1.44528823734363, -1.44528823734363, -3.17705098312484, 0.23176274578121, -0.749999999999999, 0.23176274578121, 0.463525491562422, 3.92705098312484, 0.927050983124843, -0.463525491562422},
{-0.48176274578121, 0.0, 0.0, -0.445288237343631, -0.23176274578121, 0.177050983124842, -0.231762745781212, 0.177050983124843, 0.0, 0.0, -0.981762745781212, 1.90881372890605, -0.749999999999999, 0.231762745781209, -0.750000000000001, 0.23176274578121, 0.109423525312737, 0.572949016875158, 0.57294901687516, -0.109423525312736},
{0.445288237343632, 0.0, 0.0, 0.481762745781211, -0.23176274578121, -0.177050983124843, 2.19528823734363, -1.67705098312484, 0.0, 0.0, -0.408813728906052, -0.51823725421879, -0.177050983124841, 0.23176274578121, -1.67705098312485, -2.19528823734363, 1.03647450843758, 0.354101966249684, 3.35410196624969, -1.03647450843758},
{0.445288237343631, 0.0, 0.0, 0.481762745781211, 2.19528823734363, -1.67705098312484, -0.23176274578121, -0.177050983124843, 0.0, 0.0, -0.408813728906052, -0.518237254218791, -1.67705098312484, -2.19528823734363, -0.177050983124843, 0.23176274578121, 1.03647450843758, 3.35410196624969, 0.354101966249686, -1.03647450843758},
{0.445288237343632, 0.0, 0.0, 0.481762745781211, -0.23176274578121, 0.75, -0.231762745781211, 0.75, 0.0, 0.0, -1.90881372890605, 0.981762745781211, -0.177050983124842, 0.23176274578121, -0.177050983124842, 0.23176274578121, 0.109423525312736, -0.572949016875157, -0.572949016875156, -0.109423525312736},
{-0.48176274578121, 0.0, 0.0, 0.48176274578121, -0.23176274578121, 3.17705098312484, -0.231762745781211, 0.749999999999998, 0.0, 0.0, 1.44528823734363, -1.44528823734363, 0.75, 0.231762745781209, 0.177050983124842, 0.231762745781211, 0.463525491562423, -3.92705098312484, -0.927050983124841, -0.46352549156242},
{-0.48176274578121, 0.0, 0.0, 0.48176274578121, 2.19528823734363, -1.67705098312484, -0.231762745781209, -0.749999999999999, 0.0, 0.0, -0.0547117626563695, 0.0547117626563698, 1.67705098312484, -2.19528823734363, 0.750000000000001, 0.231762745781211, 4.39057647468727, 0.0, 0.0, -4.39057647468727},
{-0.481762745781211, 0.0, 0.0, -0.445288237343632, -0.23176274578121, 0.177050983124843, 2.19528823734363, 1.67705098312484, 0.0, 0.0, 0.51823725421879, 0.408813728906053, 0.177050983124843, 0.23176274578121, 1.67705098312484, -2.19528823734363, 1.03647450843758, -0.354101966249686, -3.35410196624969, -1.03647450843758},
{-0.48176274578121, 0.0, 0.0, -0.445288237343632, 2.19528823734363, 1.67705098312484, -0.231762745781211, 0.177050983124843, 0.0, 0.0, 0.518237254218788, 0.408813728906054, 1.67705098312484, -2.19528823734363, 0.177050983124842, 0.23176274578121, 1.03647450843758, -3.35410196624968, -0.354101966249684, -1.03647450843758},
{-0.48176274578121, 0.0, 0.0, 0.481762745781209, -0.231762745781212, 0.750000000000002, -0.231762745781212, 3.17705098312485, 0.0, 0.0, 1.44528823734363, -1.44528823734363, 0.177050983124841, 0.23176274578121, 0.750000000000001, 0.231762745781211, 0.463525491562421, -0.927050983124842, -3.92705098312485, -0.463525491562421},
{-0.48176274578121, 0.0, 0.0, 0.48176274578121, -0.231762745781209, -0.749999999999999, 2.19528823734363, -1.67705098312484, 0.0, 0.0, -0.0547117626563691, 0.0547117626563693, 0.749999999999999, 0.23176274578121, 1.67705098312484, -2.19528823734363, 4.39057647468726, 0.0, 0.0, -4.39057647468727}};

static const double FE0_D010[24][20] = \
{{0.309691544571293, 0.0, -0.309691544571293, 0.0, 0.277755672855962, -0.34397862390511, 0.0, 0.0, 0.109914860856913, 0.461010505429208, -0.277755672855962, 0.34397862390511, -0.621734296761073, 0.621734296761073, -0.461010505429208, -0.109914860856913, 2.06387174343066, 0.0, -2.06387174343066, 0.0},
{0.492946377144539, 0.0, -0.309691544571293, 0.0, 0.277755672855962, -0.34397862390511, 0.0, 0.0, -0.34397862390511, 0.277755672855962, -1.09815882276448, 0.34397862390511, -0.988243961907565, 0.804989129334319, -1.09815882276448, 0.343978623905111, 1.24346859352215, 0.820403149908517, -1.24346859352214, 0.820403149908516},
{0.309691544571293, 0.0, -0.309691544571293, 0.0, 0.461010505429208, 0.109914860856913, 0.0, 0.0, -0.34397862390511, 0.277755672855962, -0.461010505429209, -0.109914860856913, -0.621734296761073, 0.621734296761073, -0.277755672855962, 0.34397862390511, 2.06387174343066, 0.0, -2.06387174343066, 0.0},
{0.309691544571293, 0.0, -0.492946377144539, 0.0, 1.09815882276448, -0.34397862390511, 0.0, 0.0, -0.34397862390511, 1.09815882276448, -0.277755672855962, 0.34397862390511, -0.804989129334319, 0.988243961907565, -0.277755672855962, 0.34397862390511, 1.24346859352214, -0.820403149908515, -1.24346859352215, -0.820403149908516},
{-0.656268380377315, 0.0, 0.656268380377316, 0.0, -0.138364799028121, -0.160698806216933, 0.0, 0.0, 6.45551386361308, -2.98670872248114, 0.13836479902812, 0.160698806216934, -0.022334007188814, 0.0223340071888124, 2.98670872248114, -6.45551386361308, 0.964192837301609, 0.0, -0.964192837301607, 0.0},
{-3.50461230383034, 0.0, 0.656268380377315, 0.0, -0.138364799028117, -0.160698806216935, 0.0, 0.0, -0.160698806216936, -0.138364799028119, -0.781160023895859, 0.160698806216935, 5.67435383971723, -2.82600991626421, -0.781160023895856, 0.160698806216934, 0.0446680143776299, 0.919524822923977, -0.0446680143776296, 0.919524822923977},
{-0.656268380377313, 0.0, 0.656268380377313, 0.0, -2.98670872248114, 6.45551386361309, 0.0, 0.0, -0.160698806216936, -0.138364799028121, 2.98670872248114, -6.45551386361309, -0.022334007188819, 0.0223340071888161, 0.13836479902812, 0.160698806216936, 0.964192837301616, 0.0, -0.964192837301614, 0.0},
{-0.656268380377312, 0.0, 3.50461230383033, 0.0, 0.781160023895859, -0.160698806216935, 0.0, 0.0, -0.160698806216933, 0.781160023895856, 0.13836479902812, 0.160698806216935, 2.8260099162642, -5.67435383971721, 0.138364799028121, 0.160698806216933, 0.0446680143776295, -0.919524822923977, -0.0446680143776327, -0.91952482292398},
{0.498367853091935, 0.0, -0.498367853091936, 0.0, 1.35482581073685, -0.0478473474516953, 0.0, 0.0, -0.133749160906694, 0.138645601630889, -1.35482581073685, 0.047847347451695, -1.40267315818855, 1.40267315818855, -0.138645601630889, 0.133749160906694, 0.287084084710168, 0.0, -0.287084084710169, 0.0},
{-0.717812356014029, 0.0, -0.498367853091934, 0.0, 1.35482581073685, -0.0478473474516936, 0.0, 0.0, -0.0478473474516941, 1.35482581073685, 1.16343642093008, 0.0478473474516941, 1.02968726002338, 0.186492949082581, 1.16343642093008, 0.047847347451694, 2.80534631637709, -2.51826223166693, -2.80534631637709, -2.51826223166693},
{0.498367853091935, 0.0, -0.498367853091935, 0.0, 0.138645601630891, -0.133749160906694, 0.0, 0.0, -0.0478473474516949, 1.35482581073685, -0.138645601630888, 0.133749160906695, -1.40267315818854, 1.40267315818854, -1.35482581073685, 0.0478473474516948, 0.287084084710168, 0.0, -0.287084084710168, 0.0},
{0.498367853091935, 0.0, 0.717812356014027, 0.0, -1.16343642093007, -0.0478473474516948, 0.0, 0.0, -0.0478473474516943, -1.16343642093007, -1.35482581073685, 0.0478473474516947, -0.186492949082584, -1.02968726002338, -1.35482581073685, 0.0478473474516949, 2.80534631637709, 2.51826223166692, -2.80534631637709, 2.51826223166692},
{-0.481762745781211, 0.0, 0.481762745781211, 0.0, -0.177050983124842, -0.23176274578121, 0.0, 0.0, -0.23176274578121, -0.750000000000001, -0.75, 0.231762745781211, 1.44528823734363, -1.44528823734363, -3.17705098312484, 0.23176274578121, 0.46352549156242, 0.927050983124843, -0.46352549156242, 3.92705098312485},
{-0.481762745781211, 0.0, -0.445288237343631, 0.0, 0.177050983124843, -0.231762745781211, 0.0, 0.0, -0.231762745781211, 0.177050983124842, -0.75, 0.231762745781211, -0.981762745781211, 1.90881372890605, -0.749999999999999, 0.23176274578121, 0.109423525312734, 0.572949016875158, -0.109423525312735, 0.572949016875156},
{-0.481762745781211, 0.0, 0.481762745781211, 0.0, -0.75, -0.23176274578121, 0.0, 0.0, -0.231762745781212, -0.177050983124843, -3.17705098312484, 0.23176274578121, 1.44528823734363, -1.44528823734363, -0.750000000000001, 0.231762745781212, 0.46352549156242, 3.92705098312485, -0.46352549156242, 0.927050983124843},
{0.445288237343632, 0.0, 0.481762745781212, 0.0, -0.177050983124843, -0.23176274578121, 0.0, 0.0, 2.19528823734363, -1.67705098312484, -0.177050983124842, 0.23176274578121, -0.408813728906052, -0.518237254218792, -1.67705098312484, -2.19528823734363, 1.03647450843758, 0.354101966249685, -1.03647450843758, 3.35410196624969},
{0.445288237343632, 0.0, 0.481762745781211, 0.0, 0.750000000000001, -0.231762745781211, 0.0, 0.0, -0.231762745781211, 0.749999999999999, -0.177050983124843, 0.231762745781211, -1.90881372890605, 0.981762745781212, -0.177050983124843, 0.23176274578121, 0.109423525312735, -0.572949016875157, -0.109423525312736, -0.572949016875158},
{0.445288237343631, 0.0, 0.481762745781211, 0.0, -1.67705098312484, 2.19528823734363, 0.0, 0.0, -0.231762745781211, -0.177050983124843, -1.67705098312484, -2.19528823734363, -0.408813728906052, -0.518237254218791, -0.177050983124841, 0.231762745781211, 1.03647450843758, 3.35410196624969, -1.03647450843758, 0.354101966249684},
{-0.48176274578121, 0.0, -0.445288237343631, 0.0, 1.67705098312484, 2.19528823734363, 0.0, 0.0, -0.231762745781211, 0.177050983124843, 1.67705098312484, -2.19528823734363, 0.518237254218788, 0.408813728906053, 0.177050983124842, 0.231762745781211, 1.03647450843758, -3.35410196624969, -1.03647450843758, -0.354101966249684},
{-0.48176274578121, 0.0, 0.48176274578121, 0.0, 0.750000000000002, -0.231762745781211, 0.0, 0.0, -0.23176274578121, 3.17705098312484, 0.177050983124843, 0.231762745781211, 1.44528823734363, -1.44528823734363, 0.750000000000001, 0.231762745781211, 0.463525491562421, -0.927050983124845, -0.463525491562423, -3.92705098312484},
{-0.48176274578121, 0.0, 0.48176274578121, 0.0, -0.75, -0.23176274578121, 0.0, 0.0, 2.19528823734363, -1.67705098312484, 0.750000000000002, 0.231762745781211, -0.0547117626563684, 0.0547117626563677, 1.67705098312484, -2.19528823734363, 4.39057647468726, 0.0, -4.39057647468726, 0.0},
{-0.48176274578121, 0.0, 0.48176274578121, 0.0, 3.17705098312484, -0.231762745781211, 0.0, 0.0, -0.231762745781211, 0.750000000000001, 0.749999999999999, 0.231762745781211, 1.44528823734363, -1.44528823734363, 0.177050983124842, 0.23176274578121, 0.463525491562421, -3.92705098312484, -0.463525491562422, -0.927050983124842},
{-0.481762745781211, 0.0, 0.48176274578121, 0.0, -1.67705098312484, 2.19528823734363, 0.0, 0.0, -0.231762745781211, -0.750000000000001, 1.67705098312484, -2.19528823734363, -0.054711762656369, 0.0547117626563681, 0.750000000000001, 0.231762745781212, 4.39057647468727, 0.0, -4.39057647468727, 0.0},
{-0.48176274578121, 0.0, -0.445288237343631, 0.0, 0.177050983124844, -0.231762745781211, 0.0, 0.0, 2.19528823734363, 1.67705098312484, 0.177050983124842, 0.231762745781211, 0.518237254218789, 0.408813728906052, 1.67705098312484, -2.19528823734363, 1.03647450843758, -0.354101966249686, -1.03647450843758, -3.35410196624969}};

static const double FE0_D100[24][20] = \
{{0.309691544571293, -0.492946377144539, 0.0, 0.0, 0.0, 0.0, 1.09815882276448, -0.34397862390511, 1.09815882276448, -0.34397862390511, -0.277755672855962, 0.34397862390511, -0.277755672855962, 0.343978623905111, -0.804989129334319, 0.988243961907565, 1.24346859352214, -1.24346859352214, -0.820403149908516, -0.820403149908516},
{0.492946377144539, -0.309691544571292, 0.0, 0.0, 0.0, 0.0, 0.277755672855962, -0.34397862390511, 0.277755672855962, -0.343978623905111, -1.09815882276448, 0.34397862390511, -1.09815882276448, 0.34397862390511, -0.988243961907565, 0.804989129334318, 1.24346859352215, -1.24346859352214, 0.820403149908516, 0.820403149908516},
{0.309691544571293, -0.309691544571292, 0.0, 0.0, 0.0, 0.0, 0.461010505429208, 0.109914860856913, 0.277755672855962, -0.34397862390511, -0.461010505429209, -0.109914860856913, -0.277755672855962, 0.34397862390511, -0.621734296761072, 0.621734296761072, 2.06387174343066, -2.06387174343066, 0.0, 0.0},
{0.309691544571293, -0.309691544571292, 0.0, 0.0, 0.0, 0.0, 0.277755672855962, -0.34397862390511, 0.461010505429208, 0.109914860856913, -0.277755672855962, 0.34397862390511, -0.461010505429208, -0.109914860856913, -0.621734296761073, 0.621734296761072, 2.06387174343066, -2.06387174343066, 0.0, 0.0},
{-0.656268380377316, 3.50461230383033, 0.0, 0.0, 0.0, 0.0, 0.781160023895856, -0.160698806216934, 0.781160023895855, -0.160698806216934, 0.138364799028119, 0.160698806216934, 0.138364799028119, 0.160698806216934, 2.82600991626421, -5.67435383971723, 0.0446680143776292, -0.0446680143776293, -0.919524822923976, -0.919524822923974},
{-3.50461230383034, 0.656268380377317, 0.0, 0.0, 0.0, 0.0, -0.138364799028122, -0.160698806216936, -0.138364799028122, -0.160698806216934, -0.781160023895859, 0.160698806216936, -0.781160023895861, 0.160698806216934, 5.67435383971723, -2.82600991626421, 0.0446680143776324, -0.044668014377632, 0.91952482292398, 0.919524822923982},
{-0.656268380377312, 0.656268380377313, 0.0, 0.0, 0.0, 0.0, -2.98670872248114, 6.45551386361309, -0.138364799028116, -0.160698806216939, 2.98670872248114, -6.45551386361309, 0.138364799028117, 0.160698806216939, -0.0223340071888168, 0.022334007188817, 0.964192837301607, -0.964192837301606, 0.0, 0.0},
{-0.656268380377312, 0.656268380377314, 0.0, 0.0, 0.0, 0.0, -0.138364799028117, -0.160698806216934, -2.98670872248113, 6.45551386361307, 0.138364799028119, 0.160698806216934, 2.98670872248113, -6.45551386361307, -0.0223340071888171, 0.0223340071888149, 0.964192837301605, -0.964192837301606, 0.0, 0.0},
{0.498367853091935, 0.717812356014027, 0.0, 0.0, 0.0, 0.0, -1.16343642093007, -0.047847347451695, -1.16343642093007, -0.0478473474516945, -1.35482581073685, 0.0478473474516952, -1.35482581073685, 0.0478473474516942, -0.186492949082585, -1.02968726002338, 2.80534631637709, -2.80534631637709, 2.51826223166692, 2.51826223166692},
{-0.717812356014029, -0.498367853091935, 0.0, 0.0, 0.0, 0.0, 1.35482581073685, -0.0478473474516933, 1.35482581073685, -0.047847347451694, 1.16343642093008, 0.0478473474516939, 1.16343642093008, 0.0478473474516942, 1.02968726002338, 0.186492949082583, 2.80534631637709, -2.80534631637709, -2.51826223166693, -2.51826223166693},
{0.498367853091935, -0.498367853091935, 0.0, 0.0, 0.0, 0.0, 0.138645601630889, -0.133749160906695, 1.35482581073685, -0.0478473474516927, -0.138645601630888, 0.133749160906695, -1.35482581073685, 0.0478473474516926, -1.40267315818855, 1.40267315818855, 0.28708408471017, -0.28708408471017, 0.0, 0.0},
{0.498367853091935, -0.498367853091935, 0.0, 0.0, 0.0, 0.0, 1.35482581073685, -0.0478473474516947, 0.138645601630889, -0.133749160906694, -1.35482581073685, 0.0478473474516947, -0.13864560163089, 0.133749160906694, -1.40267315818855, 1.40267315818855, 0.28708408471017, -0.287084084710169, 0.0, 0.0},
{-0.481762745781211, -0.445288237343631, 0.0, 0.0, 0.0, 0.0, 0.177050983124841, -0.231762745781211, 0.177050983124841, -0.23176274578121, -0.75, 0.231762745781211, -0.750000000000001, 0.23176274578121, -0.981762745781211, 1.90881372890605, 0.109423525312737, -0.109423525312737, 0.572949016875159, 0.572949016875159},
{-0.481762745781211, 0.481762745781211, 0.0, 0.0, 0.0, 0.0, -0.177050983124844, -0.231762745781211, -0.750000000000001, -0.231762745781209, -0.75, 0.231762745781211, -3.17705098312484, 0.231762745781209, 1.44528823734363, -1.44528823734363, 0.463525491562421, -0.46352549156242, 0.927050983124844, 3.92705098312484},
{-0.48176274578121, 0.48176274578121, 0.0, 0.0, 0.0, 0.0, -0.750000000000001, -0.23176274578121, -0.177050983124844, -0.23176274578121, -3.17705098312484, 0.23176274578121, -0.75, 0.23176274578121, 1.44528823734363, -1.44528823734363, 0.463525491562422, -0.46352549156242, 3.92705098312484, 0.927050983124844},
{0.445288237343632, 0.48176274578121, 0.0, 0.0, 0.0, 0.0, 0.749999999999999, -0.231762745781211, 0.749999999999999, -0.23176274578121, -0.177050983124842, 0.231762745781211, -0.177050983124842, 0.23176274578121, -1.90881372890605, 0.981762745781213, 0.109423525312736, -0.109423525312736, -0.572949016875156, -0.572949016875156},
{0.445288237343632, 0.481762745781211, 0.0, 0.0, 0.0, 0.0, -0.177050983124842, -0.23176274578121, -1.67705098312484, 2.19528823734363, -0.177050983124843, 0.231762745781211, -1.67705098312484, -2.19528823734363, -0.408813728906053, -0.51823725421879, 1.03647450843758, -1.03647450843758, 0.354101966249685, 3.35410196624969},
{0.445288237343632, 0.481762745781211, 0.0, 0.0, 0.0, 0.0, -1.67705098312485, 2.19528823734363, -0.177050983124843, -0.23176274578121, -1.67705098312484, -2.19528823734363, -0.177050983124842, 0.23176274578121, -0.408813728906053, -0.518237254218791, 1.03647450843758, -1.03647450843758, 3.35410196624969, 0.354101966249685},
{-0.48176274578121, 0.48176274578121, 0.0, 0.0, 0.0, 0.0, -1.67705098312484, 2.19528823734363, -0.749999999999999, -0.231762745781209, 1.67705098312484, -2.19528823734363, 0.75, 0.23176274578121, -0.0547117626563701, 0.0547117626563699, 4.39057647468727, -4.39057647468727, 0.0, 0.0},
{-0.48176274578121, -0.445288237343632, 0.0, 0.0, 0.0, 0.0, 0.177050983124844, -0.231762745781211, 1.67705098312484, 2.19528823734363, 0.177050983124842, 0.231762745781211, 1.67705098312484, -2.19528823734363, 0.518237254218788, 0.408813728906054, 1.03647450843758, -1.03647450843758, -0.354101966249686, -3.35410196624969},
{-0.48176274578121, 0.48176274578121, 0.0, 0.0, 0.0, 0.0, 3.17705098312484, -0.23176274578121, 0.749999999999999, -0.23176274578121, 0.750000000000002, 0.23176274578121, 0.177050983124842, 0.23176274578121, 1.44528823734363, -1.44528823734363, 0.463525491562423, -0.463525491562423, -3.92705098312484, -0.927050983124841},
{-0.48176274578121, 0.481762745781211, 0.0, 0.0, 0.0, 0.0, -0.75, -0.23176274578121, -1.67705098312484, 2.19528823734363, 0.75, 0.231762745781211, 1.67705098312484, -2.19528823734363, -0.0547117626563687, 0.0547117626563679, 4.39057647468726, -4.39057647468726, 0.0, 0.0},
{-0.48176274578121, -0.445288237343632, 0.0, 0.0, 0.0, 0.0, 1.67705098312484, 2.19528823734363, 0.177050983124842, -0.231762745781211, 1.67705098312484, -2.19528823734363, 0.177050983124842, 0.231762745781211, 0.51823725421879, 0.408813728906054, 1.03647450843758, -1.03647450843758, -3.35410196624969, -0.354101966249683},
{-0.48176274578121, 0.48176274578121, 0.0, 0.0, 0.0, 0.0, 0.75, -0.231762745781211, 3.17705098312484, -0.231762745781209, 0.177050983124842, 0.231762745781211, 0.750000000000001, 0.23176274578121, 1.44528823734363, -1.44528823734363, 0.463525491562424, -0.463525491562424, -0.927050983124842, -3.92705098312484}};
